{
  "model.HCNet.0.weight": [
    [
      -0.06822919845581055
    ],
    [
      0.31804800033569336
    ],
    [
      0.23335003852844238
    ],
    [
      -0.23790395259857178
    ],
    [
      -0.4388207197189331
    ],
    [
      0.5874890089035034
    ],
    [
      0.25555551052093506
    ],
    [
      -0.6850382089614868
    ],
    [
      -0.7004886865615845
    ],
    [
      0.14626407623291016
    ],
    [
      -0.2488846778869629
    ],
    [
      -0.23992478847503662
    ],
    [
      0.9906934499740601
    ],
    [
      -0.913204550743103
    ],
    [
      0.05515933036804199
    ],
    [
      0.11298871040344238
    ],
    [
      0.2798076868057251
    ],
    [
      -0.12159848213195801
    ],
    [
      -0.03200173377990723
    ],
    [
      0.6282449960708618
    ]
  ],
  "model.HCNet.0.bias": [
    0.199021577835083,
    -0.18711936473846436,
    -0.9566994905471802,
    -0.7251657247543335,
    -0.6943105459213257,
    -0.255867600440979,
    0.5192879438400269,
    -0.8382779359817505,
    -0.5108813047409058,
    0.6438663005828857,
    -0.2194446325302124,
    -0.9620571136474609,
    0.6678853034973145,
    -0.7660675048828125,
    0.24630486965179443,
    -0.41815245151519775,
    -0.12631714344024658,
    -0.08400619029998779,
    -0.6762475967407227,
    0.3335576057434082
  ],
  "model.HCNet.2.weight": [
    [
      0.16293534636497498,
      -0.08236666023731232,
      -0.015978757292032242,
      -0.09252065420150757,
      0.17182651162147522,
      0.10768003016710281,
      0.1678619086742401,
      0.009415141306817532,
      -0.16090667247772217,
      -0.06257759034633636,
      -0.011193363927304745,
      0.1309136003255844,
      -0.07765492051839828,
      -0.1661548912525177,
      0.0022228178568184376,
      0.04286317899823189,
      0.048295166343450546,
      0.01019221730530262,
      -0.006531734485179186,
      -0.008167187683284283
    ],
    [
      -0.06833808869123459,
      -0.01088548731058836,
      -0.0721520259976387,
      -0.14777570962905884,
      0.128697469830513,
      0.19015222787857056,
      -0.004552472848445177,
      0.004197014961391687,
      0.13030333817005157,
      -0.20073837041854858,
      -0.032665152102708817,
      0.19428616762161255,
      -0.08479773998260498,
      -0.17293238639831543,
      -0.18718917667865753,
      -0.07634115219116211,
      -0.21589763462543488,
      0.003904598532244563,
      0.18321414291858673,
      -0.0035453822929412127
    ],
    [
      0.054219409823417664,
      0.061151064932346344,
      -0.1327589899301529,
      -0.058394916355609894,
      0.1930132657289505,
      0.19575929641723633,
      -0.21916593611240387,
      0.028625406324863434,
      -0.14453209936618805,
      0.011817380785942078,
      -0.19132037460803986,
      -0.015073652379214764,
      0.023546824231743813,
      -0.11137700825929642,
      0.2108680009841919,
      -0.148750439286232,
      0.028562339022755623,
      0.04099520668387413,
      0.1936403214931488,
      0.12396698445081711
    ],
    [
      0.06374303996562958,
      -0.10851582884788513,
      0.08820747584104538,
      -0.0007836865843273699,
      0.15240374207496643,
      -0.051017146557569504,
      -0.141381174325943,
      -0.1878933161497116,
      -0.11918292939662933,
      0.2225339412689209,
      0.18477533757686615,
      0.17390818893909454,
      0.0740513727068901,
      -0.1829824298620224,
      0.06166398152709007,
      -0.0716516375541687,
      -0.07632409036159515,
      0.038103535771369934,
      0.08389498293399811,
      -0.03834117576479912
    ],
    [
      0.2025909572839737,
      -0.20187509059906006,
      -0.18785908818244934,
      0.13992202281951904,
      0.04457462951540947,
      0.09129997342824936,
      0.15257032215595245,
      -0.047532059252262115,
      0.21811147034168243,
      -0.13228856027126312,
      -0.10545084625482559,
      0.18501423299312592,
      0.12570463120937347,
      -0.16338090598583221,
      0.12076690793037415,
      0.06122308969497681,
      -0.16798922419548035,
      -0.05456119403243065,
      0.13434574007987976,
      -0.006235453300178051
    ],
    [
      -0.030090207234025,
      0.09941770881414413,
      0.0533125214278698,
      0.14731092751026154,
      -0.1615525484085083,
      0.007983393967151642,
      0.11975093930959702,
      -0.05769892781972885,
      -0.1701950877904892,
      -0.038975827395915985,
      -0.11441715061664581,
      0.051116038113832474,
      0.10303554683923721,
      -0.019727658480405807,
      0.22233223915100098,
      0.1534252017736435,
      0.0063681467436254025,
      0.12407176941633224,
      0.06601256132125854,
      0.03248228877782822
    ],
    [
      0.018696816638112068,
      0.004265947267413139,
      0.1266508400440216,
      0.21333615481853485,
      0.024295644834637642,
      0.19374074041843414,
      -0.17140460014343262,
      -0.09055693447589874,
      -0.13509352505207062,
      0.10285654664039612,
      0.017393125221133232,
      -0.03960011154413223,
      -0.10796216130256653,
      0.008206771686673164,
      0.1801760494709015,
      0.1323716789484024,
      -0.05870242044329643,
      -0.0914573222398758,
      -0.13610035181045532,
      0.04902639612555504
    ],
    [
      0.15646633505821228,
      -0.1103152483701706,
      0.0716511607170105,
      0.1629747748374939,
      -0.0893421396613121,
      -0.04973725602030754,
      -0.11460606008768082,
      -0.08239902555942535,
      0.030914250761270523,
      -0.03796127438545227,
      0.2022867649793625,
      0.028978625312447548,
      -0.03600408136844635,
      0.159558966755867,
      0.05002351477742195,
      -0.08597546070814133,
      0.09581435471773148,
      0.19139471650123596,
      -0.12646417319774628,
      -0.052618131041526794
    ],
    [
      -0.20530645549297333,
      0.00231837946921587,
      -0.04421884939074516,
      0.10793206840753555,
      -0.15421614050865173,
      -0.15843082964420319,
      0.11878980696201324,
      0.1365775465965271,
      0.09417498111724854,
      -0.21171605587005615,
      -0.15511396527290344,
      0.1886179894208908,
      0.15698035061359406,
      -0.12757733464241028,
      -0.1779630184173584,
      -0.03141714259982109,
      0.06939182430505753,
      0.032537441700696945,
      0.19540534913539886,
      -0.03942074254155159
    ],
    [
      -0.2190597802400589,
      -0.1374332755804062,
      0.16021427512168884,
      0.13349589705467224,
      -0.14845994114875793,
      0.08416929841041565,
      -0.209045872092247,
      -0.09424695372581482,
      0.06531979888677597,
      -0.13425666093826294,
      -0.02672158181667328,
      0.21888521313667297,
      0.1601419299840927,
      0.04109854996204376,
      0.016121046617627144,
      0.200184166431427,
      0.19281822443008423,
      0.06616370379924774,
      -0.12707510590553284,
      -0.07030796259641647
    ],
    [
      0.08651628345251083,
      0.019891805946826935,
      0.21783529222011566,
      0.14988717436790466,
      -0.10513027757406235,
      -0.11517157405614853,
      0.21080508828163147,
      -0.1972406506538391,
      0.21358893811702728,
      -0.162944495677948,
      -0.04938571900129318,
      -0.19466663897037506,
      0.14538975059986115,
      -0.13720521330833435,
      0.08430913835763931,
      0.21633292734622955,
      -0.20389287173748016,
      0.15089835226535797,
      -0.0785461887717247,
      0.00864118430763483
    ],
    [
      0.17610637843608856,
      0.10102645307779312,
      0.11991593986749649,
      -0.1734696924686432,
      -0.004245262127369642,
      -0.1302737444639206,
      0.007260083220899105,
      -0.15613174438476562,
      0.03845861926674843,
      -0.06188317388296127,
      -0.038107987493276596,
      0.1265268176794052,
      0.1556462049484253,
      0.21818895637989044,
      0.10161782056093216,
      -0.05788847804069519,
      0.14756104350090027,
      -0.19447754323482513,
      0.1579960435628891,
      0.0011379183270037174
    ],
    [
      0.18685215711593628,
      -0.020348982885479927,
      -0.004865894094109535,
      0.040874186903238297,
      -0.04257915914058685,
      -0.002876849612221122,
      -0.18149127066135406,
      0.2010449320077896,
      -0.19841241836547852,
      -0.11737897992134094,
      0.1837109923362732,
      -0.06443993747234344,
      -0.1670030802488327,
      -0.06442146748304367,
      0.047707002609968185,
      0.057856012135744095,
      0.06820490956306458,
      -0.0250786654651165,
      0.15173427760601044,
      -0.11796794831752777
    ],
    [
      0.17345261573791504,
      -0.09800446033477783,
      0.1888984590768814,
      0.05024198815226555,
      0.050902657210826874,
      0.19446498155593872,
      -0.03597046807408333,
      0.18418224155902863,
      -0.04912291467189789,
      0.01206181664019823,
      -0.07233025133609772,
      0.06370484828948975,
      -0.08595816045999527,
      0.13370361924171448,
      -0.017510518431663513,
      -0.02929561771452427,
      0.10707235336303711,
      0.038714997470378876,
      0.17551307380199432,
      -0.11017730087041855
    ],
    [
      -0.008718966506421566,
      -0.07993568480014801,
      -0.08658396452665329,
      -0.06478174775838852,
      0.1835803985595703,
      0.032933950424194336,
      0.2082519233226776,
      -0.12176394462585449,
      0.20401138067245483,
      -0.0753866508603096,
      -0.04968775808811188,
      -0.08410409837961197,
      0.21736671030521393,
      -0.10254715383052826,
      0.13702312111854553,
      0.18724487721920013,
      0.08236940950155258,
      -0.12194600701332092,
      0.012898468412458897,
      0.059347279369831085
    ],
    [
      -0.08822309225797653,
      0.02419315278530121,
      -0.1218457818031311,
      0.11633934080600739,
      0.031103001907467842,
      -0.16504453122615814,
      -0.20923848450183868,
      0.08027283102273941,
      0.15193529427051544,
      0.22053277492523193,
      0.21404822170734406,
      -0.18823088705539703,
      0.15675409138202667,
      -0.08282043039798737,
      -0.17554230988025665,
      -0.07727818936109543,
      0.12667393684387207,
      -0.07706739753484726,
      0.019124139100313187,
      0.047685302793979645
    ],
    [
      -0.2145768254995346,
      0.05313613638281822,
      0.1408093124628067,
      -0.07638391107320786,
      -0.08707153052091599,
      -0.06413643062114716,
      0.058055102825164795,
      0.2198755443096161,
      -0.1117526963353157,
      -0.19782905280590057,
      -0.17908909916877747,
      0.14770705997943878,
      -0.1921517252922058,
      0.21966645121574402,
      -0.21524374186992645,
      0.060280799865722656,
      0.09132193773984909,
      -0.11641406267881393,
      -0.1522505283355713,
      -0.1909174919128418
    ],
    [
      -0.07497148960828781,
      -0.10065209865570068,
      -0.18731512129306793,
      -0.21856915950775146,
      0.03586781769990921,
      0.02007434517145157,
      -0.10900305211544037,
      -0.0738057941198349,
      -0.09270457923412323,
      0.07871353626251221,
      0.14497269690036774,
      -0.10555408149957657,
      -0.0020475012715905905,
      -0.11176082491874695,
      0.12686823308467865,
      0.08310780674219131,
      -0.003428895492106676,
      -0.02922799251973629,
      0.07086267322301865,
      -0.11489642411470413
    ],
    [
      -0.1157786101102829,
      -0.1806570589542389,
      -0.19916483759880066,
      0.008751140907406807,
      0.18967457115650177,
      -0.057706575840711594,
      -0.02633245661854744,
      0.012387819588184357,
      -0.1836322546005249,
      0.16605649888515472,
      -0.17818157374858856,
      0.005697987973690033,
      -0.2172185182571411,
      -0.051613226532936096,
      0.02432856522500515,
      0.2129855453968048,
      -0.01687498576939106,
      0.09621115028858185,
      0.178468257188797,
      0.19435614347457886
    ],
    [
      0.17605087161064148,
      0.05889367684721947,
      0.17306697368621826,
      0.10700235515832901,
      -0.2011583000421524,
      -0.1460329294204712,
      -0.03755418211221695,
      0.18504197895526886,
      0.2226242870092392,
      -0.00622580386698246,
      -0.060525503009557724,
      -0.18207059800624847,
      -0.21861951053142548,
      -0.1300627887248993,
      0.01596825383603573,
      -0.03272091597318649,
      0.11629655957221985,
      -0.16797618567943573,
      0.1559005081653595,
      -0.17732250690460205
    ]
  ],
  "model.HCNet.2.bias": [
    -0.2012338489294052,
    0.21361681818962097,
    -0.19635790586471558,
    0.18625237047672272,
    -0.09672417491674423,
    0.1688709557056427,
    0.11522917449474335,
    0.17613103985786438,
    -0.054363273084163666,
    0.03441706299781799,
    -0.08104071021080017,
    0.07989351451396942,
    -0.1314970701932907,
    -0.08348562568426132,
    0.16966386139392853,
    0.05644436180591583,
    0.15103192627429962,
    0.17512743175029755,
    -0.08073984831571579,
    0.10563436895608902
  ],
  "model.HCNet.4.weight": [
    [
      -0.16831524670124054,
      -0.15513254702091217,
      0.10218553990125656,
      0.04562218114733696,
      0.17209923267364502,
      0.12719497084617615,
      0.06193811073899269,
      0.0032226580660790205,
      -0.11163362860679626,
      -0.030685942620038986,
      -0.02155490033328533,
      0.18987439572811127,
      0.1688169240951538,
      -0.15457381308078766,
      -0.08027816563844681,
      0.1311042457818985,
      -0.07964180409908295,
      0.15355458855628967,
      -0.1762498915195465,
      -0.09612302482128143
    ],
    [
      0.05704137682914734,
      0.14456255733966827,
      -0.11189483106136322,
      0.12715691328048706,
      -0.07417012751102448,
      -0.003368999343365431,
      0.12942342460155487,
      -0.1751984804868698,
      -0.09668512642383575,
      -0.18248729407787323,
      0.08612822741270065,
      -0.13719812035560608,
      -0.17926540970802307,
      0.032818663865327835,
      -0.11235751956701279,
      0.17142827808856964,
      0.10362959653139114,
      0.062055185437202454,
      0.05477646738290787,
      0.15888136625289917
    ],
    [
      -0.05836911126971245,
      -0.08211209625005722,
      -0.020073706284165382,
      0.13430650532245636,
      -0.1231977716088295,
      -0.11365111172199249,
      -0.1682436764240265,
      -0.1593000292778015,
      0.12714481353759766,
      0.00014010397717356682,
      -0.17369472980499268,
      -0.08085095137357712,
      -0.09377964586019516,
      0.06405387818813324,
      -0.018702680245041847,
      -0.16860847175121307,
      -0.21989135444164276,
      -0.19942182302474976,
      0.1413179486989975,
      0.1851091831922531
    ]
  ],
  "model.HCNet.4.bias": [
    0.18330810964107513,
    -0.197021484375,
    -0.07684953510761261
  ]
}